FANN_FLO_2.1
num_layers=4
learning_rate=0.700000
connection_rate=1.000000
network_type=0
learning_momentum=0.000000
training_algorithm=2
train_error_function=1
train_stop_function=0
cascade_output_change_fraction=0.010000
quickprop_decay=-0.000100
quickprop_mu=1.750000
rprop_increase_factor=1.200000
rprop_decrease_factor=0.500000
rprop_delta_min=0.000000
rprop_delta_max=50.000000
rprop_delta_zero=0.100000
cascade_output_stagnation_epochs=12
cascade_candidate_change_fraction=0.010000
cascade_candidate_stagnation_epochs=12
cascade_max_out_epochs=150
cascade_min_out_epochs=50
cascade_max_cand_epochs=150
cascade_min_cand_epochs=50
cascade_num_candidate_groups=2
bit_fail_limit=3.49999999999999977796e-01
cascade_candidate_limit=1.00000000000000000000e+03
cascade_weight_multiplier=4.00000000000000022204e-01
cascade_activation_functions_count=10
cascade_activation_functions=3 5 7 8 10 11 14 15 16 17 
cascade_activation_steepnesses_count=4
cascade_activation_steepnesses=2.50000000000000000000e-01 5.00000000000000000000e-01 7.50000000000000000000e-01 1.00000000000000000000e+00 
layer_sizes=4 6 6 2 
scale_included=1
scale_mean_in=1000.450012 1.045000 4.500000 
scale_deviation_in=0.287228 0.028723 2.872281 
scale_new_min_in=-1.000000 -1.000000 -1.000000 
scale_factor_in=1.000000 1.000000 1.000000 
scale_mean_out=1000.494080 
scale_deviation_out=0.812040 
scale_new_min_out=-1.000000 
scale_factor_out=1.000000 
neurons (num_inputs, activation_function, activation_steepness)=(0, 0, 0.00000000000000000000e+00) (0, 0, 0.00000000000000000000e+00) (0, 0, 0.00000000000000000000e+00) (0, 0, 0.00000000000000000000e+00) (4, 5, 5.00000000000000000000e-01) (4, 5, 5.00000000000000000000e-01) (4, 5, 5.00000000000000000000e-01) (4, 5, 5.00000000000000000000e-01) (4, 5, 5.00000000000000000000e-01) (0, 5, 0.00000000000000000000e+00) (6, 5, 5.00000000000000000000e-01) (6, 5, 5.00000000000000000000e-01) (6, 5, 5.00000000000000000000e-01) (6, 5, 5.00000000000000000000e-01) (6, 5, 5.00000000000000000000e-01) (0, 5, 0.00000000000000000000e+00) (6, 0, 5.00000000000000000000e-01) (0, 0, 0.00000000000000000000e+00) 
connections (connected_to_neuron, weight)=(0, 1.16565320555709790729e-02) (1, -2.54321696217359671799e-01) (2, 1.37502087305067632883e-01) (3, 9.65491815881806991761e-01) (0, -1.85027510638224951256e-01) (1, -1.73572631838132956927e-01) (2, 1.53805386203793470479e-01) (3, 6.77955723851607960917e-01) (0, -3.08540468488105568134e-01) (1, 6.49014716344583075802e-02) (2, 4.72759959228234855066e-02) (3, 9.46909784468805360014e-01) (0, 3.10595113181134918623e-01) (1, 1.66985882531455083477e-02) (2, -1.33081085122109088470e-01) (3, 2.81656606646502605251e-01) (0, -4.37242721746386953097e-01) (1, 3.71294266065767486484e-01) (2, 3.20929530851454675178e-02) (3, 3.09383661015863120625e-01) (4, -3.07275599227945006575e-01) (5, -2.92358230338551017269e-01) (6, -2.84738934763834550257e-01) (7, 1.09974926337625977801e+00) (8, -2.35667254652766028356e-01) (9, 5.30058429937938502263e-01) (4, -2.54294585996839017650e-01) (5, -6.89853945984903738076e-02) (6, -3.20047610103865676212e-01) (7, 1.23065953078050993597e+00) (8, -3.31280815285929897129e-01) (9, 5.17116410259321424014e-01) (4, 6.30165613962995529995e-01) (5, 1.84243488443448333314e+00) (6, 5.12551380186012983664e-01) (7, 3.65581952701472201461e-01) (8, 6.95759945641517885129e-01) (9, 6.63765033594927444938e-01) (4, -3.70625349058687769688e-01) (5, -1.96797948909655934235e-02) (6, -2.91503870888892402391e-01) (7, 1.33751681982837111740e+00) (8, -2.08236317898226663825e-01) (9, 5.52584617262868560417e-01) (4, 1.58400280548600469466e+00) (5, 7.75891780985751289279e+00) (6, 6.43185008432489824237e-01) (7, 5.95433964086597850018e-02) (8, 8.04818041996857802545e-01) (9, 7.69322413044330799536e-01) (10, 1.60077250492129086190e+00) (11, 1.90187693445428007699e+00) (12, -4.44686193970310172929e-01) (13, 1.36409901426594215579e+00) (14, -4.35208545821354264582e-01) (15, -4.48030988420011697104e-02) 
