FANN_FLO_2.1
num_layers=4
learning_rate=0.700000
connection_rate=1.000000
network_type=0
learning_momentum=0.000000
training_algorithm=2
train_error_function=1
train_stop_function=0
cascade_output_change_fraction=0.010000
quickprop_decay=-0.000100
quickprop_mu=1.750000
rprop_increase_factor=1.200000
rprop_decrease_factor=0.500000
rprop_delta_min=0.000000
rprop_delta_max=50.000000
rprop_delta_zero=0.100000
cascade_output_stagnation_epochs=12
cascade_candidate_change_fraction=0.010000
cascade_candidate_stagnation_epochs=12
cascade_max_out_epochs=150
cascade_min_out_epochs=50
cascade_max_cand_epochs=150
cascade_min_cand_epochs=50
cascade_num_candidate_groups=2
bit_fail_limit=3.49999999999999977796e-01
cascade_candidate_limit=1.00000000000000000000e+03
cascade_weight_multiplier=4.00000000000000022204e-01
cascade_activation_functions_count=10
cascade_activation_functions=3 5 7 8 10 11 14 15 16 17 
cascade_activation_steepnesses_count=4
cascade_activation_steepnesses=2.50000000000000000000e-01 5.00000000000000000000e-01 7.50000000000000000000e-01 1.00000000000000000000e+00 
layer_sizes=4 6 6 2 
scale_included=1
scale_mean_in=1000.451233 1.045002 4.500000 
scale_deviation_in=0.287232 0.028723 2.872281 
scale_new_min_in=-1.000000 -1.000000 -1.000000 
scale_factor_in=1.000000 1.000000 1.000000 
scale_mean_out=1000.494019 
scale_deviation_out=0.812040 
scale_new_min_out=-1.000000 
scale_factor_out=1.000000 
neurons (num_inputs, activation_function, activation_steepness)=(0, 0, 0.00000000000000000000e+00) (0, 0, 0.00000000000000000000e+00) (0, 0, 0.00000000000000000000e+00) (0, 0, 0.00000000000000000000e+00) (4, 5, 5.00000000000000000000e-01) (4, 5, 5.00000000000000000000e-01) (4, 5, 5.00000000000000000000e-01) (4, 5, 5.00000000000000000000e-01) (4, 5, 5.00000000000000000000e-01) (0, 5, 0.00000000000000000000e+00) (6, 5, 5.00000000000000000000e-01) (6, 5, 5.00000000000000000000e-01) (6, 5, 5.00000000000000000000e-01) (6, 5, 5.00000000000000000000e-01) (6, 5, 5.00000000000000000000e-01) (0, 5, 0.00000000000000000000e+00) (6, 0, 5.00000000000000000000e-01) (0, 0, 0.00000000000000000000e+00) 
connections (connected_to_neuron, weight)=(0, -1.57498350272725601284e-01) (1, -5.27789612849463313921e-03) (2, 3.88934094382831829773e-01) (3, 9.28191887460564246659e-01) (0, -1.48055706677158172013e-02) (1, 9.48883554923305241879e-03) (2, 3.35058362233100437422e+00) (3, -1.60603469882103166988e-01) (0, -1.29814001308601628670e-01) (1, -6.55438485105772489225e-02) (2, -1.08746790837995455092e+00) (3, 1.88985423318904000034e-01) (0, -4.70996408982146230748e-01) (1, -1.22939513064846156487e-01) (2, 6.81576167650097541895e-02) (3, -4.89480006816680413007e-01) (0, 7.32418063762571569519e-02) (1, 2.05027378409753414934e-02) (2, -1.08235667644203092941e+00) (3, -9.04259966013002819407e-02) (4, 4.46117544699148604881e-01) (5, -7.64516683923239903642e-01) (6, 6.96228240207551696273e-01) (7, 1.56174066825324575625e+00) (8, 3.31833220449575638789e-01) (9, 4.98461616545854468985e-01) (4, -1.00782355883786367556e+00) (5, 1.69018287426076829760e+00) (6, 1.84787951871021949302e+00) (7, -3.38725780749583038620e-02) (8, 1.68306155907929388960e+00) (9, 8.61250969177557501588e-01) (4, 1.30992968177033941579e+00) (5, -7.30665362574213439473e-01) (6, 2.80597451882715842597e-01) (7, 3.77651890793532729607e-01) (8, -3.90974018138528944810e-01) (9, 2.60844389244774099712e-01) (4, 1.59803378301468090861e+00) (5, -1.20935265507971378973e+00) (6, 9.90030015957684028649e-01) (7, -1.10864789765121174447e+00) (8, -4.23110793142909724640e-01) (9, 5.98225804347995882004e-01) (4, 4.20479676743005070794e-01) (5, -6.18595646932931453321e-01) (6, 6.55645844573467639904e-01) (7, 1.01191215051505145617e+00) (8, 2.33492691160035903408e-01) (9, 6.46687824603011329749e-01) (10, -6.90738440604628967101e-01) (11, 1.15217310905781662456e+01) (12, -2.58762710096415338157e+00) (13, -1.10470390648344785056e+00) (14, -3.08372915727530116925e+00) (15, -1.21286907542108111230e-02) 
