FANN_FLO_2.1
num_layers=4
learning_rate=0.700000
connection_rate=1.000000
network_type=0
learning_momentum=0.000000
training_algorithm=2
train_error_function=1
train_stop_function=0
cascade_output_change_fraction=0.010000
quickprop_decay=-0.000100
quickprop_mu=1.750000
rprop_increase_factor=1.200000
rprop_decrease_factor=0.500000
rprop_delta_min=0.000000
rprop_delta_max=50.000000
rprop_delta_zero=0.100000
cascade_output_stagnation_epochs=12
cascade_candidate_change_fraction=0.010000
cascade_candidate_stagnation_epochs=12
cascade_max_out_epochs=150
cascade_min_out_epochs=50
cascade_max_cand_epochs=150
cascade_min_cand_epochs=50
cascade_num_candidate_groups=2
bit_fail_limit=3.49999999999999977796e-01
cascade_candidate_limit=1.00000000000000000000e+03
cascade_weight_multiplier=4.00000000000000022204e-01
cascade_activation_functions_count=10
cascade_activation_functions=3 5 7 8 10 11 14 15 16 17 
cascade_activation_steepnesses_count=4
cascade_activation_steepnesses=2.50000000000000000000e-01 5.00000000000000000000e-01 7.50000000000000000000e-01 1.00000000000000000000e+00 
layer_sizes=4 6 6 2 
scale_included=1
scale_mean_in=1000.451233 1.045002 4.500000 
scale_deviation_in=0.287232 0.028723 2.872281 
scale_new_min_in=-1.000000 -1.000000 -1.000000 
scale_factor_in=1.000000 1.000000 1.000000 
scale_mean_out=1000.494019 
scale_deviation_out=0.812040 
scale_new_min_out=-1.000000 
scale_factor_out=1.000000 
neurons (num_inputs, activation_function, activation_steepness)=(0, 0, 0.00000000000000000000e+00) (0, 0, 0.00000000000000000000e+00) (0, 0, 0.00000000000000000000e+00) (0, 0, 0.00000000000000000000e+00) (4, 5, 5.00000000000000000000e-01) (4, 5, 5.00000000000000000000e-01) (4, 5, 5.00000000000000000000e-01) (4, 5, 5.00000000000000000000e-01) (4, 5, 5.00000000000000000000e-01) (0, 5, 0.00000000000000000000e+00) (6, 5, 5.00000000000000000000e-01) (6, 5, 5.00000000000000000000e-01) (6, 5, 5.00000000000000000000e-01) (6, 5, 5.00000000000000000000e-01) (6, 5, 5.00000000000000000000e-01) (0, 5, 0.00000000000000000000e+00) (6, 0, 5.00000000000000000000e-01) (0, 0, 0.00000000000000000000e+00) 
connections (connected_to_neuron, weight)=(0, -1.81667130369049550920e-01) (1, -5.81772718770979246905e-02) (2, -2.21727150957683782906e+00) (3, -6.80112809620463831806e-01) (0, -7.11606439832090150593e-03) (1, 8.33933479143999199790e-03) (2, 4.39351946231011591948e+00) (3, 3.35533527586492075212e-01) (0, -1.51955268037319503500e-04) (1, -3.63615135839592416769e-05) (2, -6.38332757300177244808e-01) (3, 3.32323794595731802914e-01) (0, -3.94641739822092052492e-01) (1, 2.56009827315996085773e-01) (2, 1.40457642928919185232e-01) (3, 1.92727770262997116779e-01) (0, 3.07266685293915098320e-01) (1, 8.44327328842304630774e-02) (2, -3.66506566848943809989e-02) (3, -2.64362476139452684532e-01) (4, 5.16248492068406505950e+00) (5, 3.94023529025919128088e+00) (6, 1.50000000000000000000e+03) (7, -2.33816240636907091144e-01) (8, 1.87753710421390196394e+00) (9, 9.89010356731881201675e-01) (4, -5.74051732663611091745e-01) (5, 9.01673576458111525334e-01) (6, -3.33289365623382849435e-01) (7, -5.24278718099975171718e-01) (8, 9.29883769174511543021e-01) (9, 3.23344496329513619859e-01) (4, 6.43114318461713074804e-01) (5, 1.17727674934709458654e+00) (6, 3.87622483150087138171e+00) (7, -1.40187505447376681289e-01) (8, 5.52535212450507517978e-01) (9, -2.66468122645058758113e-01) (4, -4.08271721919991781302e-01) (5, 1.01660003133082543769e+00) (6, -2.97383045596557649137e-01) (7, -5.42192992419299413243e-01) (8, 1.21986934215765474576e+00) (9, 3.90102979114087422552e-01) (4, 8.26294234402908500670e-01) (5, 1.17909343251548603959e+00) (6, 3.70217916617934417189e+00) (7, -5.88665295423375853345e-02) (8, 6.15003999467782835886e-01) (9, -3.17682907465351715981e-01) (10, -1.85911058860918876334e+00) (11, 2.27703924094622367491e+00) (12, 4.41156553411058016678e+00) (13, 1.28028583567455389591e+00) (14, 7.43656351244318702953e+00) (15, -3.73394133514915183003e-01) 
